node,dim_0,dim_1,dim_2,dim_3,dim_4,dim_5,dim_6,dim_7,dim_8,dim_9,dim_10,dim_11,dim_12,dim_13,dim_14,dim_15,dim_16,dim_17,dim_18,dim_19,dim_20,dim_21,dim_22,dim_23,dim_24,dim_25,dim_26,dim_27,dim_28,dim_29,dim_30,dim_31,dim_32,dim_33,dim_34,dim_35,dim_36,dim_37,dim_38,dim_39,dim_40,dim_41,dim_42,dim_43,dim_44,dim_45,dim_46,dim_47,dim_48,dim_49,dim_50,dim_51,dim_52,dim_53,dim_54,dim_55,dim_56,dim_57,dim_58,dim_59,dim_60,dim_61,dim_62,dim_63,dim_64,dim_65,dim_66,dim_67,dim_68,dim_69,dim_70,dim_71,dim_72,dim_73,dim_74,dim_75,dim_76,dim_77,dim_78,dim_79,dim_80,dim_81,dim_82,dim_83,dim_84,dim_85,dim_86,dim_87,dim_88,dim_89,dim_90,dim_91,dim_92,dim_93,dim_94,dim_95,dim_96,dim_97,dim_98,dim_99,dim_100,dim_101,dim_102,dim_103,dim_104,dim_105,dim_106,dim_107,dim_108,dim_109,dim_110,dim_111,dim_112,dim_113,dim_114,dim_115,dim_116,dim_117,dim_118,dim_119,dim_120,dim_121,dim_122,dim_123,dim_124,dim_125,dim_126,dim_127
n4,-0.0007406173390336335,0.001082758535631001,0.006210101768374443,0.008170230314135551,-0.00908585637807846,-0.007616969291120768,0.006745089311152697,0.009044553153216839,-0.003980641253292561,-0.002868560142815113,0.008361216634511948,-0.0003054090484511107,-0.0033888211473822594,0.005458226893097162,-0.005871663801372051,-0.0018040117574855685,0.00239153322763741,0.0019648661836981773,-0.007268496789038181,-0.009347512386739254,0.007273428607732058,0.005138106644153595,0.007539114449173212,-0.00047101874952204525,0.006124488543719053,-0.002856658538803458,-0.0010360103333368897,0.006652958691120148,-0.006138169206678867,-0.002980455756187439,-0.007365255616605282,8.015570347197354e-05,0.008151678368449211,-0.006680391728878021,-0.0028501993510872126,-0.002524027368053794,0.008279390633106232,-0.005060702562332153,0.0010321299778297544,-0.005337421782314777,-0.008355106227099895,0.005692261271178722,-0.00895532127469778,-0.005365913268178701,0.0006577289314009249,0.0005412903265096247,-0.007519854698330164,0.008457987569272518,0.003923533950001001,0.008624345995485783,-0.007246391382068396,0.003887769067659974,-0.005198630504310131,0.0012853520456701517,0.008852016180753708,-0.005139281507581472,0.004528799094259739,-0.006836905609816313,-0.0034334936644881964,0.00784483551979065,-0.0011854460462927818,-0.0002930420159827918,-0.0038717039860785007,-0.007640956901013851,-0.0011810102732852101,0.0013892707647755742,-0.001205689855851233,0.00569797120988369,-0.0019763146992772818,0.0018845670856535435,0.00407394440844655,0.008655999787151814,-0.0013958712806925178,-0.008526314049959183,0.003366076620295644,0.0003787770983763039,0.00818280503153801,0.00014692769036628306,-0.003022514982149005,-0.008140822872519493,-0.0018876042449846864,0.0035268617793917656,0.0046411785297095776,0.006427754648029804,-0.004338757134974003,0.0019113150192424655,0.006849796511232853,-0.005419464781880379,-0.0023527946323156357,0.00784561038017273,0.0005041334079578519,-0.00046940319589339197,0.0024653600994497538,-0.0004076871555298567,0.00883483700454235,0.0038151093758642673,-0.0076241460628807545,-0.007435745093971491,0.0019446336664259434,0.006860440596938133,-0.009181150235235691,0.004053646698594093,0.005722118075937033,0.004616124089807272,0.006289361976087093,-0.006288081873208284,-2.6561614504316822e-05,0.005655404645949602,-0.002801820868626237,-0.005559093318879604,-0.00021386041771620512,-0.008217189460992813,-0.006135075353085995,0.0071006473153829575,0.003132670419290662,0.007862083613872528,0.0070913187228143215,0.007869496941566467,-0.00348721188493073,-0.0008875508210621774,0.001718808081932366,-0.004507832229137421,0.00830702856183052,-0.009883930906653404,0.00565145630389452,0.0018295757472515106,-0.005937710404396057,0.0035044674295932055
n7,-0.0016814861446619034,0.0062352316454052925,0.009911559522151947,-0.0027925658505409956,-0.0018335452768951654,-0.006242875475436449,0.004447383806109428,0.003809666493907571,0.005678903311491013,0.0051210178062319756,0.009830744937062263,0.008359625935554504,0.006675432436168194,-0.00555823091417551,-0.009130433201789856,-0.0005785847897641361,-0.0024692185688763857,0.00743241747841239,0.004348828457295895,-0.002728209365159273,0.0024021859280765057,0.002351789502426982,0.008154582232236862,-0.008684449829161167,0.000683619815390557,0.002737844130024314,-0.000997983617708087,0.008539966307580471,0.0072932192124426365,0.005499669350683689,-0.001690913108177483,0.006998081691563129,-0.006575510837137699,0.001957269851118326,-0.004607481881976128,-0.004969787783920765,0.004428611136972904,0.004147500731050968,0.0071868509985506535,-0.005983326118439436,0.005548984277993441,0.006812089588493109,-0.004633515607565641,-0.008686886169016361,0.005020515993237495,0.005975624546408653,-0.0017816723557189107,-0.004878775682300329,-0.005863577593117952,-0.0010377703001722693,0.0036312986630946398,-0.0027690355200320482,-0.009228935465216637,0.003650115104392171,0.005683264695107937,-0.006555102299898863,0.001738345599733293,-0.0028511718846857548,-0.0004655453667510301,-0.007841632701456547,0.0022709621116518974,-0.004345876630395651,0.0004356616991572082,-0.0025135213509202003,0.001822753227315843,-0.0069444854743778706,-0.0026333893183618784,0.0032225085888057947,0.004564141854643822,-0.00189938023686409,-0.008038845844566822,0.005312361288815737,-0.0001125672206399031,0.0015774888452142477,-0.005695120897144079,-0.0011925651924684644,0.008111003786325455,0.006677734665572643,-0.0037578046321868896,0.0012384162982925773,-0.007804570719599724,0.0061239516362547874,-0.0035428733099251986,-0.001954187173396349,0.007821152918040752,0.0010628722375258803,0.007760489825159311,-0.0062736691907048225,0.004341966938227415,0.010105764493346214,-0.007591970730572939,-0.0047203185968101025,-0.006051570642739534,-0.004464141558855772,-0.0021690942812711,-0.007193122990429401,0.006126028019934893,-0.0054453774355351925,0.007909160107374191,0.005743005778640509,-0.007239229511469603,0.00416211923584342,0.0057694255374372005,-0.0060738455504179,-0.005817335098981857,-0.0031359971035271883,-0.007819877937436104,-0.0006298890803009272,-0.0007635079673491418,0.002200415590777993,0.0012761697871610522,-0.0019657760858535767,-0.0059403544291853905,0.0025764538440853357,-0.0003682113310787827,0.00727267749607563,0.004607802256941795,0.005222033243626356,0.0008043926791287959,-0.002572503173723817,-0.003712817095220089,-0.0015754486666992307,0.002481991657987237,-0.0038014622405171394,-0.005607154686003923,-0.0068128351122140884,-0.009108939208090305,-0.004880350083112717
n5,-0.0014433003962039948,-0.003378024324774742,-0.005047398619353771,-0.0029041580855846405,0.003350905142724514,-0.002921127714216709,0.006545449607074261,0.00119843240827322,-0.005658062174916267,0.007370155304670334,0.005961884744465351,0.004291626624763012,-0.005350660532712936,0.004548967815935612,0.003132103942334652,0.004051069729030132,0.0033249231055378914,0.0015154331922531128,-0.0024766894057393074,0.006526441313326359,0.00750951562076807,0.002962971106171608,-0.002216402441263199,5.568377673625946e-06,0.0009522018954157829,-0.006608066149055958,-0.006424956955015659,-0.00018048100173473358,0.0009666308760643005,-0.00448701623827219,-0.0036916201934218407,-0.0057391207665205,0.006506730802357197,9.476393461227417e-05,-0.0035229679197072983,0.004454457201063633,0.007171886973083019,-0.0032030250877141953,0.006222407333552837,0.004199557937681675,0.00459306500852108,0.00040046125650405884,0.006416471675038338,-0.005483625456690788,-0.006439591757953167,0.0072651207447052,-0.0001544225960969925,-0.0015369346365332603,0.003596586175262928,-0.003199465572834015,0.002143057994544506,0.005421848967671394,0.004738613963127136,-0.005867808125913143,0.007329961284995079,0.0036498503759503365,0.003098531626164913,-0.004877738654613495,0.006609358824789524,-0.0016798162832856178,0.0068946778774261475,-0.004189064726233482,-0.0063511086627841,0.005331686697900295,0.00130561925470829,-0.001717585138976574,0.007432500831782818,0.007417074404656887,-0.007635974325239658,0.0019572097808122635,0.004809916019439697,0.0030253566801548004,0.0015803026035428047,0.00033632945269346237,0.0005262745544314384,-0.0029848720878362656,-0.005578320473432541,-0.0016319314017891884,0.0030655451118946075,0.006889596581459045,0.007233710959553719,-0.004668700508773327,-0.0073458366096019745,0.007628419436514378,0.0026795193552970886,0.004036028869450092,0.004908082075417042,-0.002190830186009407,0.005720862187445164,0.0022111497819423676,0.002242972142994404,-0.0018596639856696129,-0.002443945035338402,-0.001851673237979412,0.0033409660682082176,5.942024290561676e-05,-0.007487718015909195,-0.007551206275820732,-0.0048032766208052635,-0.00010044500231742859,0.0015604812651872635,0.0073687247931957245,0.004362774081528187,-0.003352106548845768,0.00021743495017290115,0.0038784053176641464,0.006014304235577583,-0.0008939243853092194,0.0033776722848415375,-0.004542483948171139,-0.0006282739341259003,0.006328164599835873,-0.0018438007682561874,-0.007549574598670006,0.004515047185122967,-0.0030701737850904465,-0.0009553693234920502,0.007797279395163059,-0.0017627738416194916,-0.0037164567038416862,-0.004163583740592003,0.005453820340335369,-0.004460056312382221,0.0016512991860508919,-0.004105984233319759,0.0047818077728152275,0.003404146060347557,0.002036214806139469
